digraph Tree {
node [shape=box] ;
0 [label="feature_4_normal <= 0.5\nentropy = 0.7375\nsamples = 21\nvalue = [[18, 3]\n[7, 14]\n[17, 4]]"] ;
1 [label="entropy = 0.0\nsamples = 11\nvalue = [[11, 0]\n[0, 11]\n[11, 0]]"] ;
0 -> 1 [labeldistance=2.5, labelangle=45, headlabel="True"] ;
2 [label="feature_3_no <= 0.5\nentropy = 0.9112\nsamples = 10\nvalue = [[7, 3]\n[7, 3]\n[6, 4]]"] ;
0 -> 2 [labeldistance=2.5, labelangle=-45, headlabel="False"] ;
3 [label="feature_2_myope <= 0.5\nentropy = 0.6473\nsamples = 5\nvalue = [[2, 3]\n[3, 2]\n[5, 0]]"] ;
2 -> 3 ;
4 [label="feature_1_young <= 0.5\nentropy = 0.6122\nsamples = 3\nvalue = [[2, 1]\n[1, 2]\n[3, 0]]"] ;
3 -> 4 ;
5 [label="entropy = 0.0\nsamples = 2\nvalue = [[2, 0]\n[0, 2]\n[2, 0]]"] ;
4 -> 5 ;
6 [label="entropy = 0.0\nsamples = 1\nvalue = [[0, 1]\n[1, 0]\n[1, 0]]"] ;
4 -> 6 ;
7 [label="entropy = 0.0\nsamples = 2\nvalue = [[0, 2]\n[2, 0]\n[2, 0]]"] ;
3 -> 7 ;
8 [label="feature_1_presbyopic <= 0.5\nentropy = 0.4813\nsamples = 5\nvalue = [[5, 0]\n[4, 1]\n[1, 4]]"] ;
2 -> 8 ;
9 [label="entropy = 0.0\nsamples = 3\nvalue = [[3, 0]\n[3, 0]\n[0, 3]]"] ;
8 -> 9 ;
10 [label="feature_2_hyper <= 0.5\nentropy = 0.6667\nsamples = 2\nvalue = [[2, 0]\n[1, 1]\n[1, 1]]"] ;
8 -> 10 ;
11 [label="entropy = 0.0\nsamples = 1\nvalue = [[1, 0]\n[0, 1]\n[1, 0]]"] ;
10 -> 11 ;
12 [label="entropy = 0.0\nsamples = 1\nvalue = [[1, 0]\n[1, 0]\n[0, 1]]"] ;
10 -> 12 ;
}